svm_type c_svc
kernel_type rbf
gamma 2
nr_class 2
total_sv 137
rho -3.56628
label 0 1
probA -2.2516
probB -0.750516
nr_sv 73 64
scaling 0:1345420 1:252 2:24587900 3:4458.8301 4:2798.4199 5:12.0035 
SV
512 0:0.00209377 1:0.25793651 2:0.0070657519 3:0.00017590287 4:7.547295e-05 5:0.83119675 
315.8723659216836 0:0.00054109497 1:0.19047619 2:0.042385889 3:0.00021510283 4:1.4113357e-05 5:0.51898446 
512 0:0.0037750294 1:0.49603175 2:0.0067901285 3:0.00020968146 4:1.9680141e-05 5:0.80104885 
2.928721866533204 0:0.0013126013 1:0.1468254 2:0.56664864 3:-0.0025696203 4:-3.3098428e-07 5:0.54918234 
512 0:0.00072988361 1:0.3968254 2:0.0010233204 3:0.00012252049 4:0.00013610324 5:0.82198273 
47.12002893612956 0:0.00041771343 1:0.15079365 2:0.00021360872 3:0.00021518291 4:1.4199906e-05 5:0.54983962 
153.670442394873 0:6.7636872e-05 1:0.67460317 2:0.00055663558 3:0.00020550234 4:2.9428785e-05 5:0.49344608 
512 0:0.0015281473 1:0.54365079 2:0.0013835179 3:0.00012744441 4:0.00013236112 5:0.78255844 
512 0:0.00037832052 1:0.34126984 2:0.0011756759 3:0.00012826503 4:0.00011400648 5:0.76338318 
512 0:0.00021405955 1:0.42857143 2:0.00091494595 3:0.00016029496 4:9.4422923e-05 5:0.68789438 
512 0:0.0013980764 1:0.60714286 2:0.0093005096 3:0.00021249969 4:1.7459782e-05 5:0.79038614 
512 0:0.00062954319 1:0.50396825 2:0.0543072 3:0.0001952667 4:4.6170699e-05 5:0.45590368 
512 0:0.0017927487 1:0.5 2:0.0037913729 3:0.00018922206 4:5.5200081e-05 5:0.753656 
113.2686933408924 0:0.048566247 1:0.13492063 2:0.12934736 3:-0.021698719 4:-0.00072722823 5:0.66075313 
512 0:0.0020179572 1:0.4484127 2:0.08124484 3:-0.00055670208 4:-0.00016638926 5:0.49084767 
512 0:0.0035609698 1:0.26984127 2:0.0045691173 3:0.00021491221 4:1.0775903e-05 5:0.76590579 
281.6628663442739 0:0.001056919 1:0.38888889 2:0.00039895965 3:0.00015467241 4:7.2519139e-05 5:0.59296456 
512 0:0.00035007656 1:0.74603175 2:0.045598851 3:0.00022181244 4:3.869255e-06 5:0.45499565 
512 0:0.0057535937 1:0.31746032 2:0.014451417 3:-0.00028442215 4:-6.4136193e-05 5:0.82961888 
512 0:0.00069495028 1:0.55952381 2:0.0065792524 3:0.00020425111 4:3.1824317e-05 5:0.76121548 
512 0:0.016299 1:0.62301587 2:0.013034013 3:-0.00071369619 4:-0.00027370874 5:0.91639938 
512 0:0.004071591 1:0.52380952 2:0.004974886 3:0.00014792759 4:0.00011577783 5:0.78668307 
432.6417905800664 0:0.082770436 1:0.71031746 2:0.010495569 3:-0.0029316884 4:-0.00092731975 5:0.88749948 
512 0:0.0077812133 1:0.54365079 2:0.0019749755 3:0.00013324146 4:0.00012332424 5:0.80532094 
311.1459252827395 0:0.00065184106 1:0.42063492 2:0.0081903294 3:0.00020911113 4:2.4073263e-05 5:0.73420918 
275.93865126179 0:1.7838296e-05 1:0.75 2:0.00013643947 3:0.00018810921 4:5.1716326e-05 5:0.44431459 
2.307136663327493 0:1.263546e-05 1:0.99206349 2:7.6278577e-05 3:0.00022351894 4:9.4064866e-07 5:0.31657433 
5.624954527205958 0:4.5339002e-05 1:0.46031746 2:2.0312146e-05 3:0.00016752085 4:7.0688105e-05 5:0.58316324 
343.7728458921912 0:0.00019770778 1:0.39285714 2:0.00021934367 3:0.00015920768 4:8.4314008e-05 5:0.67202653 
406.6011454685677 0:0.0014701729 1:0.66666667 2:0.0011476539 3:0.00011448699 4:0.00017454564 5:0.81473406 
512 0:0.00031142692 1:0.40079365 2:0.00043141953 3:0.00012568588 4:0.00013778954 5:0.7081268 
207.7119217677525 0:0.00034115741 1:0.1547619 2:0.00039950382 3:0.00021698314 4:8.5398191e-06 5:0.57034614 
512 0:0.0004162269 1:0.45238095 2:0.0027901894 3:0.00020789266 4:2.5807742e-05 5:0.73936769 
512 0:0.003178933 1:0.38492063 2:0.014916605 3:0.00015094319 4:0.00011655292 5:0.78928314 
512 0:0.003028794 1:0.66269841 2:0.0017258651 3:0.00013596459 4:0.00012318916 5:0.81565377 
512 0:0.0036761755 1:0.42063492 2:0.0043305447 3:0.00016294252 4:8.9820327e-05 5:0.73743904 
512 0:0.026781228 1:0.36507937 2:0.024325014 3:-0.0022489083 4:-0.00014137978 5:0.48455284 
512 0:0.02400217 1:0.079365079 2:0.0080368799 3:-0.00064532621 4:-0.00026371453 5:0.6966568 
512 0:0.0087095479 1:0.47222222 2:0.0021864048 3:0.00013830197 4:0.00010550311 5:0.73103675 
198.8469140888017 0:0.0026014181 1:0.45238095 2:0.0033970488 3:0.00016323766 4:9.676067e-05 5:0.57252803 
512 0:0.0014612537 1:0.51190476 2:0.0011236747 3:0.00016445973 4:8.437297e-05 5:0.73497062 
512 0:0.00088150912 1:0.5515873 2:0.0012312641 3:0.00017072393 4:8.4549856e-05 5:0.75735494 
512 0:0.0031937982 1:0.16666667 2:0.014299147 3:0.00017336835 4:7.6709715e-05 5:0.96291082 
68.45289393195745 0:3.2703542e-05 1:0.57936508 2:0.00072783768 3:0.00022271358 4:2.0238279e-06 5:0.53873204 
512 0:0.00010628651 1:0.4047619 2:0.00020628114 3:0.00012953712 4:0.00011379136 5:0.68729954 
512 0:4.9798576e-05 1:0.66269841 2:0.00021167769 3:0.00015389867 4:0.00011092224 5:0.49228059 
512 0:0.011547324 1:0.43253968 2:0.014860806 3:-0.00054246293 4:-0.00038086134 5:0.73980172 
111.1289843369219 0:0.4713896 1:0.25793651 2:0.023168916 3:-0.031244744 4:-0.033563012 5:0.82471532 
512 0:0.020551947 1:0.47619048 2:0.038779237 3:-0.0024437577 4:-0.0020237563 5:0.82575913 
512 0:0.0013021956 1:0.46031746 2:0.0049332802 3:0.00020035569 4:2.7099792e-05 5:0.78344153 
512 0:0.0029002096 1:0.36904762 2:0.0066880864 3:0.00011068172 4:0.0001403735 5:0.76453115 
512 0:0.0002564255 1:0.28968254 2:0.074396349 3:0.00022421845 4:7.5975017e-08 5:0.47349022 
512 0:0.0074095821 1:0.48809524 2:0.037250762 3:-0.00093944371 4:-0.00022217002 5:0.52566837 
512 0:0.0033417074 1:0.44047619 2:0.062136254 3:-0.00071534909 4:-8.5103385e-05 5:0.50988211 
512 0:9.5137578e-05 1:0.59920635 2:0.00022494479 3:0.00021599702 4:1.2985436e-05 5:0.52257507 
323.7169036523445 0:0.010635341 1:0.67063492 2:0.073946128 3:-0.0026383378 4:-0.0010338441 5:0.50214105 
512 0:0.025846947 1:0.33333333 2:0.12367221 3:-0.011017621 4:-0.0011918262 5:0.55883118 
512 0:0.024108457 1:0.15079365 2:0.031707995 3:-0.0026108868 4:-0.00051516931 5:0.67981172 
512 0:0.012853235 1:0.45634921 2:0.016025647 3:-0.00060572391 4:-0.00055721086 5:0.53134088 
512 0:0.069561921 1:0.34920635 2:0.001920347 3:-0.00039669824 4:-0.00033939617 5:0.91164241 
512 0:0.013563051 1:0.47619048 2:0.024904974 3:-0.0011361567 4:-0.00042347827 5:0.77664349 
512 0:0.040332387 1:0.43650794 2:0.016936379 3:-0.0021767348 4:-0.0014524518 5:0.61815305 
511.4512703233011 0:0.068091005 1:0.49206349 2:0.046817337 3:-0.0095368294 4:-0.0087258882 5:0.64729205 
248.4956340830132 0:0.018753995 1:0.53571429 2:0.017926378 3:-0.0010273322 4:-0.00086328355 5:0.55418588 
54.67515348772946 0:0.0052355398 1:0.28571429 2:0.023048166 3:-0.00041616747 4:-3.9119575e-05 5:0.57452408 
512 0:0.073322085 1:0.41269841 2:0.054932304 3:-0.012264428 4:-0.010023585 5:0.69674762 
512 0:0.01528073 1:0.27777778 2:0.029029075 3:-0.0015191407 4:-0.00030677134 5:0.8502437 
512 0:0.029068246 1:0.31349206 2:0.037384893 3:-0.0036667692 4:-0.001279958 5:0.70591492 
512 0:5.2771625e-05 1:0.61111111 2:6.326486e-05 3:0.00011635205 4:0.00013960271 5:0.52068147 
172.4439650406997 0:2.7500706e-05 1:0.76190476 2:2.3261849e-05 3:0.00011064674 4:0.00011206967 5:0.44431459 
512 0:5.425815e-05 1:0.62301587 2:0.00014415953 3:0.00014641755 4:0.0001009198 5:0.50911069 
153.2680286004949 0:0.00073359992 1:0.071428571 2:0.002048353 3:0.00013452542 4:0.00014299141 5:0.54150873 
80.67968031741832 0:0.00020959998 1:0.68650794 2:0.00024193811 3:0.00013493181 4:0.00014174749 5:0.47713335 
-512 0:0.0026125671 1:0.079365079 2:0.048048024 3:-0.00042742827 4:-0.00011689739 5:0.53564625 
-512 0:0.001734031 1:0.76984127 2:0.012854168 3:0.00012144935 4:0.00010694535 5:0.41796891 
-512 0:0.00028541273 1:0.68650794 2:0.0059307627 3:0.00022039952 4:5.724516e-06 5:0.4820019 
-512 0:0.0015036197 1:0.61904762 2:0.006321158 3:0.00012699004 4:0.00013652168 5:0.46198611 
-512 0:0.0011847601 1:0.73809524 2:0.011036079 3:0.00012432252 4:0.00015367922 5:0.4652493 
-512 0:0.020174369 1:0.51984127 2:0.11837693 3:-0.0081247995 4:-0.0017577419 5:0.56446119 
-4.476884050524378 0:1 1:0.54365079 2:0.34396227 3:-1 4:-1 5:0.63125339 
-512 0:0.0025679713 1:0.40079365 2:0.001337715 3:0.00012964769 4:9.1175022e-05 5:0.81116676 
-512 0:0.012399102 1:0.58730159 2:0.018223801 3:-0.000778868 4:-8.0651226e-05 5:0.82997958 
-512 0:0.0032302181 1:0.47619048 2:0.0048288792 3:0.00018737 4:4.3046078e-05 5:0.71048447 
-512 0:0.033604376 1:0.40079365 2:0.031319145 3:-0.0036292928 4:-0.00032321238 5:0.89918772 
-512 0:0.010431687 1:0.54365079 2:0.0054032268 3:-0.00018998235 4:-6.6309919e-05 5:0.80223519 
-512 0:0.0055410206 1:0.45238095 2:0.0024356411 3:0.00016266935 4:5.2871978e-05 5:0.82475941 
-512 0:0.0036902975 1:0.57142857 2:0.0050318653 3:0.00017531124 4:5.3279712e-05 5:0.66647228 
-512 0:0.0088574572 1:0.30555556 2:0.011518837 3:-0.00034487073 4:-0.00011327964 5:0.78588158 
-512 0:0.026556763 1:0.43253968 2:0.019587846 3:-0.0017414389 4:-0.00067214357 5:0.87735241 
-512 0:0.0022714097 1:0.32539683 2:0.0021139422 3:0.00017190204 4:5.4024413e-05 5:0.81642856 
-56.21777073542727 0:0.52259146 1:0.36111111 2:0.045227124 3:-0.074135142 4:-0.051576963 5:0.95962009 
-512 0:0.0088477947 1:0.25793651 2:0.0025377482 3:0.00013104065 4:8.0561534e-05 5:0.82234097 
-36.24523979644375 0:0.36924752 1:0.53571429 2:0.019969172 3:-0.022494691 4:-0.018169396 5:0.95445499 
-512 0:0.0091436131 1:0.6468254 2:0.002235506 3:0.00014360986 4:0.00010163664 5:0.78810347 
-197.7187966397657 0:0.021324939 1:0.6547619 2:0.0039510491 3:-0.00026388761 4:-0.00018000121 5:0.93730999 
-512 0:0.020100043 1:0.53968254 2:0.0044129023 3:-0.00027273299 4:-0.00022026786 5:0.86922979 
-512 0:0.032774152 1:0.44047619 2:0.010970193 3:-0.0012182052 4:-0.00035286985 5:0.86753028 
-512 0:0.012474915 1:0.66269841 2:0.003173557 3:0.00011305208 4:0.00014502969 5:0.75764072 
-512 0:0.029234737 1:0.67857143 2:0.0061905246 3:-0.00061016003 4:-0.00020829933 5:0.88323407 
-512 0:0.0050229668 1:0.5952381 2:0.0071151257 3:0.00018798182 4:4.1763926e-05 5:0.68693383 
-512 0:0.0060858319 1:0.54365079 2:0.0030994514 3:0.00015742942 4:8.7386456e-05 5:0.82846169 
-512 0:0.018031544 1:0.41666667 2:0.02686061 3:-0.0014380812 4:-0.0012167903 5:0.64842421 
-512 0:0.010135125 1:0.42063492 2:0.0078520329 3:-0.00022219349 4:-0.00025593979 5:0.82057901 
-512 0:0.0023435061 1:0.5 2:0.0027870213 3:0.00017389897 4:5.3069231e-05 5:0.69330029 
-512 0:0.00087630628 1:0.42460317 2:0.0015469642 3:0.00017732141 4:5.3922213e-05 5:0.63314866 
-512 0:0.0017838296 1:0.46031746 2:0.0013901228 3:0.00012165658 4:0.00010940209 5:0.61583371 
-512 0:0.023753921 1:0.41269841 2:0.08740356 3:-0.004835775 4:-0.0073359614 5:0.50329569 
-512 0:0.0032822464 1:0.41666667 2:0.0027433778 3:0.00010755378 4:0.00013366864 5:0.79045193 
-512 0:0.0024765501 1:0.49206349 2:0.0021008423 3:0.00014731488 4:6.4084734e-05 5:0.73335446 
-512 0:0.0011966523 1:0.39285714 2:0.0035243434 3:0.00019344222 4:3.9902876e-05 5:0.68035738 
-512 0:0.0010056339 1:0.4484127 2:0.0066343201 3:0.00019786783 4:2.646465e-05 5:0.57983089 
-512 0:0.0013467913 1:0.47222222 2:0.0010038311 3:0.00015175551 4:7.3156641e-05 5:0.69297956 
-512 0:0.00066299 1:0.36111111 2:0.0063096889 3:0.00020966351 4:1.6046591e-05 5:0.53245305 
-512 0:0.0043852477 1:0.3452381 2:0.026332871 3:-0.00039397779 4:-8.4733888e-05 5:0.640554 
-512 0:0.024871787 1:0.56746032 2:0.054302319 3:-0.0045486373 4:-0.001347975 5:0.41820468 
-512 0:0.0036598237 1:0.46428571 2:0.0040709048 3:0.00016823247 4:7.8562549e-05 5:0.74774939 
-512 0:0.010807777 1:0.54365079 2:0.0041410206 3:0.0001614937 4:6.940381e-05 5:0.86911316 
-512 0:0.0037668535 1:0.27777778 2:0.059807873 3:-0.00064454575 4:-0.0006909399 5:0.45847546 
-512 0:0.004703364 1:0.46031746 2:0.040659064 3:-0.00064683784 4:-0.00018609931 5:0.55666932 
-512 0:0.00092759138 1:0.54365079 2:0.011674035 3:0.00020164953 4:3.478788e-05 5:0.56465032 
-512 0:0.0026051345 1:0.52777778 2:0.01801992 3:0.00019178685 4:5.063429e-05 5:0.64526597 
-512 0:0.0015853785 1:0.57539683 2:0.017189756 3:0.00020453952 4:3.0735953e-05 5:0.53931604 
-512 0:0.0013794949 1:0.63095238 2:0.007965056 3:0.00021575458 4:1.3470316e-05 5:0.63565959 
-512 0:0.0021353927 1:0.43253968 2:0.025720903 3:0.00021976101 4:5.2660788e-06 5:0.68961383 
-512 0:0.023228434 1:0.4484127 2:0.026754745 3:-0.002118253 4:-0.00051282152 5:0.58706379 
-210.5231160478109 0:0.10037683 1:0.36111111 2:0.10082439 3:-0.025969592 4:-0.036135035 5:0.54331235 
-28.40040754198237 0:0.20428491 1:0.27380952 2:0.061144709 3:-0.042933011 4:-0.0066330644 5:0.45866956 
-512 0:0.0031402833 1:0.44444444 2:0.0088509389 3:0.00014038683 4:0.00013355537 5:0.6089774 
-512 0:0.013661162 1:0.36904762 2:0.069755856 3:-0.0032772499 4:-0.00042901352 5:0.58840422 
-512 0:0.044380937 1:0.28174603 2:0.12129096 3:-0.017992747 4:-0.0068340352 5:0.57035365 
-512 0:0.0037913811 1:0.24603175 2:0.0036293868 3:0.00014158355 4:0.00011013501 5:0.68748029 
-512 0:0.014687607 1:0.30952381 2:0.0096645098 3:-0.00046001081 4:-0.00026738983 5:0.84499525 
-512 0:0.071999078 1:0.10714286 2:0.0084173516 3:-0.0016742195 4:-0.0018850281 5:0.77600448 
-512 0:0.012026728 1:0.19444444 2:0.006093119 3:-0.00023260362 4:-0.00014507151 5:0.72998539 
-512 0:0.025083617 1:0.19444444 2:0.0029318772 3:-0.00024203659 4:-0.00010858806 5:0.89140666 
-193.844703298758 0:0.057252754 1:0.18253968 2:0.012121531 3:-0.0022966563 4:-0.00078035105 5:0.89533052 
-512 0:0.0037363797 1:0.23015873 2:0.0057588082 3:0.00016086058 4:7.2326172e-05 5:0.72494359 
