svm_type c_svc
kernel_type rbf
gamma 0.5
nr_class 2
total_sv 15
rho -1.05497
label 0 1
probA -42.9443
probB 38.456
nr_sv 14 1
scaling 0:539711 1:250 2:24587888 3:688.51068 4:267.97043 5:10.153413 
SV
0.6664697328687482 0:0.00134887 1:0.192 2:0.042385945 3:0.0013930175 4:0.00014738595 5:0.6135503 
2.048099378460559 0:0.014153871 1:0.136 2:0.15941023 3:-0.02023418 4:-0.002065405 5:0.693579 
0.05239987696735766 0:6.4849521e-05 1:0.068 2:0.00038266296 3:0.0013147497 4:0.00027518436 5:0.6106321 
0.0932057920687118 0:0.00024457534 1:0.152 2:0.0034101263 3:0.0014276407 4:4.2151567e-05 5:0.50886008 
0.4331237229167381 0:0.00050397342 1:0.104 2:0.0053559373 3:0.0010257643 4:0.001020798 5:0.52621295 
0.5978200022168464 0:0.0006651708 1:0.076 2:0.0064844732 3:0.0010757027 4:0.0009672974 5:0.46050288 
0.1964016628029919 0:0.00020010709 1:0.068 2:4.3759219e-05 3:0.00088986415 4:0.0010215939 5:0.54872474 
0.08719541172299149 0:8.1525113e-05 1:0.112 2:0.00010515404 3:0.0010286852 4:0.00098875589 5:0.57999108 
0.1409164932010833 0:0.00013340473 1:0.068 2:0.00019991421 3:0.001145712 4:0.0007391791 5:0.60187754 
0.1735804431999254 0:0.00013896326 1:0.048 2:0.0052384716 3:0.0013897731 4:0.00015220897 5:0.46618149 
0.09500116390896052 0:5.5585304e-05 1:0.236 2:0.00019516107 3:0.0011658922 4:0.00052126822 5:0.57999108 
3.329613598176666 0:0.00036686301 1:0.016 2:0.004973104 3:0.0013215461 4:0.00033446684 5:0.66868881 
0.0474118139695212 0:0.00011302345 1:0.024 2:0.00066450087 3:0.0013221942 4:0.00032403865 5:0.59851037 
0.03876090751889932 0:0.00024086965 1:0.172 2:0.0038017381 3:0.0013543622 4:0.00019471161 5:0.58699475 
-8 0:0.0065127448 1:0.08 2:0.048047986 3:-0.0027680404 4:-0.0012207622 5:0.63324814 
