svm_type c_svc
kernel_type rbf
gamma 0.5
nr_class 2
total_sv 45
rho -1.59184
label 0 1
probA -3.73958
probB 0.777645
nr_sv 25 20
scaling 0:370213 1:252 2:8484685 3:1458.3633 4:112.92746 5:11.558282 
SV
8 0:0.0015126427 1:0.45238095 2:0.0080857285 3:0.00063561543 4:0.00063953362 5:0.76784769 
8 0:0.011552809 1:0.38492063 2:0.043227109 3:0.00046149707 4:0.0028882584 5:0.81968619 
1.279566503145732 0:0.0029577568 1:0.47619048 2:0.020158652 3:0.00059901581 4:0.001012211 5:0.63254306 
3.705801645077491 0:0.079189548 1:0.38492063 2:0.32626297 3:-0.025900085 4:-0.008772064 5:0.73283719 
8 0:0.076547825 1:0.40079365 2:0.10374467 3:-0.0079553821 4:-0.0050571021 5:0.69242996 
8 0:0.0092757413 1:0.42857143 2:0.025124491 3:0.00056337674 4:0.0013103738 5:0.67786471 
8 0:0.013359877 1:0.42063492 2:0.01254957 3:0.00049818366 4:0.0022258104 5:0.76584492 
8 0:0.09835149 1:0.57539683 2:0.11843829 3:-0.011663222 4:-0.0087537763 5:0.72844089 
8 0:0.90299908 1:0.76984127 2:0.064354422 3:-0.047872407 4:-0.42412656 5:0.76957074 
8 0:0.097327755 1:0.36507937 2:0.070491811 3:-0.0068758785 4:-0.0035034895 5:0.50321723 
5.305808912665872 0:0.087228163 1:0.079365079 2:0.023290147 3:-0.0019730342 4:-0.0065350281 5:0.72349152 
8 0:0.031652049 1:0.47222222 2:0.0063360111 3:0.00042284748 4:0.0026144366 5:0.75919585 
8 0:0.009454017 1:0.45238095 2:0.0098443585 3:0.00049908638 4:0.0023977968 5:0.59458147 
8 0:0.1466264 1:0.66666667 2:0.10966512 3:-0.014236943 4:-0.09786464 5:0.78269759 
8 0:0.046870315 1:0.16666667 2:0.23663352 3:-0.0097797323 4:-0.068574923 5:0.85231594 
8 0:0.021074354 1:0.43650794 2:0.076171847 3:-0.0015327782 4:-0.0063470573 5:0.67767923 
8 0:0.017457518 1:0.43650794 2:0.059966376 3:-0.001049957 4:-8.7691984e-05 5:0.65190342 
8 0:0.0053104564 1:0.51190476 2:0.0032563166 3:0.00050282267 4:0.0020908198 5:0.76328141 
6.967757982782418 0:0.00038626412 1:0.4047619 2:0.00059778496 3:0.00039604957 4:0.0028198263 5:0.7137739 
8 0:0.0013451716 1:0.4484127 2:0.0012403019 3:0.00066466439 4:0.00017309986 5:0.51124302 
2.849468282689774 0:0.0005375284 1:0.43253968 2:0.0005296941 3:0.00066125498 4:0.00024319495 5:0.36337579 
0.288015602290581 0:0.0001134482 1:0.44444444 2:8.3596285e-05 3:0.00063234833 4:0.00050731566 5:0.53146801 
6.404011086154621 0:0.00065367775 1:0.38492063 2:0.018917088 3:0.00068178641 4:4.7819294e-05 5:0.64270549 
0.546384585689767 0:0.00020258608 1:0.4047619 2:0.0043271725 3:0.00068356449 4:2.2261172e-05 5:0.25955415 
4.653185399503744 0:0.001572068 1:0.37698413 2:0.008007061 3:0.00067560873 4:0.00012748914 5:0.44083007 
-8 0:0.76049193 1:0.3452381 2:0.074887813 3:-0.047513795 4:-0.38347616 5:0.87698421 
-8 0:0.065529844 1:0.41666667 2:0.077839793 3:-0.0043968168 4:-0.030152878 5:0.67340087 
-8 0:0.03683285 1:0.42063492 2:0.022754513 3:-0.0006793391 4:-0.0063423592 5:0.85218697 
-8 0:0.0085167188 1:0.5 2:0.0080765502 3:0.00053168249 4:0.0013150917 5:0.72000614 
-8 0:0.0031846532 1:0.42460317 2:0.0044829729 3:0.00054214609 4:0.0013362297 5:0.65753716 
-8 0:0.0064827545 1:0.46031746 2:0.0040284596 3:0.00037195543 4:0.0027110587 5:0.63955501 
-8 0:0.08632598 1:0.41269841 2:0.25328863 3:-0.014785008 4:-0.18178994 5:0.5226823 
-8 0:0.011928268 1:0.41666667 2:0.0079500723 3:0.00032883732 4:0.0033124048 5:0.82089958 
-8 0:0.0090002242 1:0.49206349 2:0.0060880648 3:0.00045040384 4:0.0015880655 5:0.76160258 
-8 0:0.0043488478 1:0.39285714 2:0.01021325 3:0.00059143421 4:0.00098882084 5:0.70656409 
-8 0:0.0036546529 1:0.4484127 2:0.019225714 3:0.00060496527 4:0.00065581244 5:0.60216562 
-8 0:0.0048944797 1:0.47222222 2:0.0029090148 3:0.00046398055 4:0.0018128682 5:0.71967288 
-8 0:0.0024094238 1:0.36111111 2:0.018284947 3:0.00064102976 4:0.00039764524 5:0.5529632 
-8 0:0.015936772 1:0.3452381 2:0.076310479 3:-0.0012045551 4:-0.0020997595 5:0.66522768 
-8 0:0.090388506 1:0.56746032 2:0.15736315 3:-0.013907101 4:-0.033403781 5:0.43431371 
-8 0:0.39026452 1:0.40079365 2:0.064502152 3:-0.019684794 4:-0.18903799 5:0.87798729 
-8 0:0.013300451 1:0.46428571 2:0.011797146 3:0.00051435763 4:0.0019468349 5:0.77655225 
-8 0:0.039277389 1:0.54365079 2:0.012000333 3:0.00049375387 4:0.001719876 5:0.90259368 
-8 0:0.013689417 1:0.27777778 2:0.17331809 3:-0.0019706501 4:-0.017121932 5:0.47613574 
-8 0:0.017092863 1:0.46031746 2:0.11782652 3:-0.0019776578 4:-0.0046116728 5:0.57811176 
