svm_type c_svc
kernel_type rbf
gamma 0.5
nr_class 2
total_sv 15
rho -1.1795
label 0 1
probA -29.9634
probB 27.4422
nr_sv 10 5
scaling 0:634217 1:228 2:2445721.8 3:139.31496 4:93.923378 5:9.9119997 
SV
5.370826931532201 0:0.014720514 1:0.5745614 2:0.13798696 3:-0.010443855 4:-0.0019708171 5:0.84316646 
0.2134631052646531 0:0.0026221309 1:0.44736842 2:0.30733389 3:0.0070772472 4:0.00012566185 5:0.79832967 
8 0:0.0094068749 1:0.62280702 2:0.055494962 3:0.0064491429 4:0.001048911 5:0.78548369 
1.059555427364668 0:0.019685691 1:0.56578947 2:0.28845721 3:-0.029130846 4:-0.0063156567 5:0.9509917 
8 0:0.0025117586 1:0.5745614 2:0.23233295 3:0.0070178937 4:0.00019723354 5:0.7720573 
0.9736327793222389 0:0.015718595 1:0.53947368 2:0.37449806 3:-0.030067252 4:-0.006619493 5:0.63658792 
8 0:0.001666622 1:0.56140351 2:0.25815659 3:0.0070001182 4:0.00024849593 5:0.71902586 
1.880722430600701 0:0.0001829027 1:0.68859649 2:0.0013345084 3:0.0060760245 4:0.0016254904 5:0.72639225 
5.259812304813031 0:0.00071268982 1:0.5745614 2:0.10133843 3:0.0071509706 4:2.5847231e-05 5:0.6103713 
1.241987021102501 0:0.00037211238 1:1 2:0.0014441167 3:0.0056233003 4:0.0022790178 5:0.50443908 
-8 0:0.0019677807 1:0.60087719 2:0.11736396 3:0.0064538752 4:0.0010364944 5:0.68379519 
-8 0:0.0055264996 1:0.58333333 2:0.18116223 3:0.0061382137 4:0.0015086306 5:0.78142197 
-8 0:0.0033632022 1:0.63596491 2:0.17281623 3:0.0065463671 4:0.00091576844 5:0.65311587 
-8 0:0.0029264432 1:0.69736842 2:0.080076279 3:0.0069053086 4:0.00040134466 5:0.76978785 
-8 0:0.0045299953 1:0.47807018 2:0.25858333 3:0.0070335385 4:0.00015690078 5:0.83512691 
