svm_type c_svc
kernel_type rbf
gamma 0.5
nr_class 2
total_sv 15
rho -1.1768
label 0 1
probA -56.193
probB 53.9446
nr_sv 11 4
scaling 0:79782 1:251 2:13461053 3:499.88956 4:35.499287 5:10 
SV
0.1022200797775489 0:0.23910155 1:0.64541833 2:0.2389192 3:-0.057145912 4:-0.0086317596 5:0.90820312 
0.1615367135452962 0:0.01061643 1:0.5059761 2:0.099197366 3:0.0017417068 4:0.0036396385 5:0.54724407 
0.4015900890272126 0:0.034932692 1:0.89243028 2:0.029699429 3:0.0019993478 4:1.1927717e-05 5:0.734375 
1.198216023288726 0:0.10276754 1:0.52988048 2:0.051509209 3:-0.0051375331 4:-0.018046295 5:0.65616436 
0.3981926595336872 0:0.35022938 1:0.67729084 2:0.043984704 3:-0.015410499 4:-0.0017230659 5:0.90140848 
2.915187371020726 0:0.03725151 1:0.57768924 2:0.010736784 3:0.0019725903 4:0.00038125744 5:0.58947368 
5.361715707339941 0:0.0033591537 1:0.62151394 2:0.027685497 3:0.0019225012 4:0.0010760072 5:0.5 
2.087785871254957 0:0.003785315 1:0.77290837 2:0.0034485409 3:0.0019776626 4:0.00025632097 5:0.42857141 
8 0:0.0087864431 1:0.72111554 2:0.015239324 3:0.0019928514 4:9.9225422e-05 5:0.59714284 
3.834060073873945 0:0.00085232258 1:0.74900398 2:0.0006643833 3:0.001992488 4:7.1299114e-05 5:0.61666665 
7.53949541133796 0:0.00048883207 1:0.78087649 2:0.00025818378 3:0.0019889433 4:0.00013123277 5:0.46666665 
-8 0:0.029242185 1:0.77290837 2:0.02347939 3:0.0010832835 4:0.0084305479 5:0.50170941 
-8 0:0.0048131157 1:0.68924303 2:0.010833076 3:0.0019658825 4:0.0004512666 5:0.57857141 
-8 0:0.025356597 1:0.62151394 2:0.011546164 3:0.0011327046 4:0.010762046 5:0.55454545 
-8 0:0.019979444 1:0.74103586 2:0.02015849 3:0.0011089117 4:0.012114581 5:0.55846152 
