svm_type c_svc
kernel_type rbf
gamma 0.5
nr_class 2
total_sv 54
rho -0.833892
label 0 1
probA -2.72457
probB 0.71551
nr_sv 28 26
scaling 0:1345415 1:251 2:8457312 3:4458.8345 4:2798.4216 5:12.00346 
SV
8 0:0.0053544817 1:0.58167331 2:0.10731682 3:-0.00065330041 4:-0.00031641276 5:0.8163419 
8 0:0.00057380065 1:0.14741036 2:0.01378342 3:0.0001881772 4:5.5668751e-05 5:0.82581369 
8 0:0.0015467347 1:0.37450199 2:0.062154456 3:0.00019030399 4:5.4022234e-05 5:0.77172289 
8 0:0.0015511942 1:0.23505976 2:0.054061289 3:0.00018964445 4:5.5137395e-05 5:0.79761952 
8 0:0.0048520345 1:0.6374502 2:0.097612582 3:-0.00052501971 4:-0.00031961108 5:0.81633269 
3.184845746240323 0:0.01524511 1:0.90438247 2:0.088453939 3:-0.0011954857 4:-0.0017010286 5:0.85118746 
8 0:0.0057536151 1:0.3187251 2:0.04201452 3:-0.00028442195 4:-6.4136096e-05 5:0.82962188 
6.500362237146005 0:0.017874782 1:0.8685259 2:0.27387875 3:-0.0057326561 4:-0.001510017 5:0.91858382 
8 0:0.00047345986 1:0.57768924 2:0.0089579816 3:0.00018529209 4:6.198734e-05 5:0.73018161 
8 0:0.00045116191 1:0.54581673 2:0.0081049245 3:0.00018273614 4:6.6013274e-05 5:0.72242848 
8 0:0.00069495286 1:0.56175299 2:0.019127784 3:0.00020425088 4:3.1824308e-05 5:0.76121841 
8 0:0.01629906 1:0.62549801 2:0.037893722 3:-0.00071369436 4:-0.00027370874 5:0.91640244 
3.360682005558741 0:0.0016931579 1:0.047808765 2:0.038750263 3:0.00019299038 4:4.9841949e-05 5:0.75921508 
8 0:0.26058279 1:0.86055777 2:0.082606004 3:-0.025327758 4:-0.0048623475 5:0.87676335 
2.664556683753181 0:0.49599269 1:0.80478088 2:0.44221784 3:-0.23667621 4:-0.17231862 5:0.89371305 
8 0:0.0040716062 1:0.52589641 2:0.014463504 3:0.00014792743 4:0.00011577789 5:0.78668594 
8 0:0.082770744 1:0.71314741 2:0.030513731 3:-0.002931687 4:-0.00092732072 5:0.88750379 
8 0:0.0077812422 1:0.54581673 2:0.0057418357 3:0.00013324143 4:0.00012332423 5:0.80532339 
8 0:0.16641928 1:0.91633466 2:0.16762804 3:-0.026076201 4:-0.031521283 5:0.89240649 
8 0:0.0032287435 1:0.28286853 2:0.029565278 3:0.00013927136 4:0.00013527683 5:0.72929788 
8 0:0.00065184348 1:0.42231076 2:0.023811699 3:0.00020911092 4:2.4073259e-05 5:0.73421194 
2.473279583030079 0:0.00042514763 1:0.28286853 2:0.017841447 3:0.00020620688 4:2.8613438e-05 5:0.71320903 
8 0:0.0028630571 1:0.54581673 2:0.019660166 3:0.00017583836 4:5.4224456e-05 5:0.74195609 
8 0:0.00023338524 1:0.079681275 2:0.0043226611 3:0.00015394628 4:0.00011123842 5:0.76611897 
8 0:0.0001427069 1:0.60956175 2:0.0011421995 3:0.00011597116 4:0.00016837066 5:0.73463668 
8 0:0.0014701783 1:0.66932271 2:0.003336571 3:0.00011448687 4:0.00017454566 5:0.81473685 
8 0:0.00031142807 1:0.40239044 2:0.0012542622 3:0.00012568586 4:0.00013778946 5:0.70812916 
8 0:0.0016091689 1:0.20318725 2:0.029608078 3:0.00022142507 4:4.0519367e-06 5:0.7297896 
-8 0:0.020174444 1:0.52191235 2:0.34415628 3:-0.0081248009 4:-0.001757741 5:0.56446311 
-2.766682323523664 0:1 1:0.54581673 2:1 3:-1 4:-1 5:0.63125589 
-8 0:0.0025679809 1:0.40239044 2:0.0038891296 3:0.00012964766 4:9.1174859e-05 5:0.81116963 
-8 0:0.012399148 1:0.58964143 2:0.052981953 3:-0.0007788667 4:-8.0651225e-05 5:0.82998203 
-8 0:0.0032302301 1:0.47808765 2:0.01403899 3:0.00018736979 4:4.3045881e-05 5:0.710487 
-8 0:0.033604501 1:0.40239044 2:0.091053938 3:-0.0036292986 4:-0.00032321217 5:0.89918977 
-8 0:0.010431726 1:0.54581673 2:0.015708766 3:-0.00018998223 4:-6.6309921e-05 5:0.80223787 
-8 0:0.0055410412 1:0.45418327 2:0.0070811326 3:0.00016266916 4:5.2871919e-05 5:0.82476217 
-8 0:0.0036903112 1:0.57370518 2:0.014629089 3:0.00017531097 4:5.3279653e-05 5:0.6664745 
-8 0:0.0099277918 1:0.58565737 2:0.0066107477 3:0.00011676033 4:0.00010381326 5:0.94764343 
-8 0:0.0088574901 1:0.30677291 2:0.033488692 3:-0.00034487127 4:-0.00011327942 5:0.78588452 
-8 0:0.026556862 1:0.43426295 2:0.056947597 3:-0.0017414367 4:-0.00067214418 5:0.87735589 
-8 0:0.0022714181 1:0.32669323 2:0.0061458579 3:0.00017190182 4:5.4024295e-05 5:0.81643128 
-8 0:0.072953698 1:0.10358566 2:0.020803363 3:-0.0015839649 4:-0.0013050371 5:0.95357374 
-8 0:0.0088478276 1:0.25896414 2:0.00737798 3:0.00013104058 4:8.0561592e-05 5:0.82234355 
-8 0:0.36924889 1:0.53784861 2:0.058056234 3:-0.022494561 4:-0.018169403 5:0.95445595 
-8 0:0.0091436471 1:0.64940239 2:0.0064992697 3:0.00014360975 4:0.00010163656 5:0.7881061 
-8 0:0.021325019 1:0.65737052 2:0.011486864 3:-0.00026388786 4:-0.00018000106 5:0.93731693 
-8 0:0.020100118 1:0.54183267 2:0.012829666 3:-0.00027273363 4:-0.00022026777 5:0.86923189 
-8 0:0.032774274 1:0.44223108 2:0.0318936 3:-0.0012182044 4:-0.00035286946 5:0.86753389 
-7.417043932204667 0:0.031419302 1:0.5936255 2:0.015903149 3:-0.0005561828 4:-0.00032213299 5:1 
-8 0:0.048255743 1:0.62549801 2:0.014131233 3:-0.00078063285 4:-0.00028782259 5:0.93824387 
-8 0:0.012474961 1:0.66533865 2:0.0092264697 3:0.00011305195 4:0.00014502946 5:0.75764316 
-8 0:0.029234846 1:0.6812749 2:0.017997629 3:-0.00061015975 4:-0.00020829937 5:0.88324051 
-8 0:0.0050229855 1:0.59760956 2:0.020685759 3:0.00018798169 4:4.176401e-05 5:0.68693644 
-8 0:0.0060858546 1:0.54581673 2:0.00901102 3:0.00015742926 4:8.7386365e-05 5:0.82846485 
