svm_type c_svc
kernel_type rbf
gamma 0.5
nr_class 2
total_sv 33
rho 0.380454
label 0 1
probA -3.80049
probB 0.437952
nr_sv 17 16
scaling 0:274849 1:250 2:3040840.5 3:191.43132 4:101.12147 5:11.463636 
SV
7.495357590723282 0:0.12652402 1:0.336 2:1 3:-0.2566229 4:-0.032982456 5:0.58514833 
6.722732578451874 0:0.11801389 1:0.152 2:0.25638738 3:-0.060812746 4:-0.014256668 5:0.71182657 
8 0:0.34051425 1:0.352 2:0.015527701 3:-0.0092399347 4:-0.009392398 5:0.95457117 
1.086680886673088 0:0.066392819 1:0.48 2:0.20137874 3:-0.026463458 4:-0.011719258 5:0.81321841 
3.284619157388976 0:0.22926043 1:0.736 2:0.24045807 3:-0.11161845 4:-0.019113092 5:0.78798925 
8 0:0.19743204 1:0.44 2:0.13694565 3:-0.050700655 4:-0.040194908 5:0.64726408 
8 0:0.33331393 1:0.496 2:0.37856129 3:-0.22213216 4:-0.24147841 5:0.67777547 
8 0:0.35892072 1:0.416 2:0.44417806 3:-0.28566376 4:-0.27739069 5:0.72955978 
8 0:0.074801073 1:0.28 2:0.23472595 3:-0.03538393 4:-0.008489544 5:0.89028313 
8 0:0.072850911 1:0.028 2:0.10296499 3:-0.014296616 4:-0.010055073 5:0.76701914 
8 0:0.014797216 1:0.144 2:0.018710154 3:0.0037984222 4:0.00228603 5:0.81300552 
8 0:0.0027978999 1:0.068 2:0.0074196431 3:0.0029625633 4:0.0034533285 5:0.80586081 
8 0:0.004096795 1:0.056 2:0.048095887 3:0.0048241979 4:0.00073695819 5:0.82266819 
8 0:0.004147732 1:0.524 2:0.028713155 3:0.0041173822 4:0.0020917113 5:0.74847515 
0.2193786030477754 0:0.00088776019 1:0.252 2:0.0042454018 3:0.0049793731 4:0.00046060627 5:0.7116324 
2.057755044643947 0:0.0043442035 1:0.712 2:0.063470132 3:0.0052086668 4:2.6193307e-05 5:0.82167247 
8 0:0.00051300896 1:0.124 2:0.012573199 3:0.0051825475 4:7.772778e-05 5:0.75393682 
-8 0:0.11370607 1:0.452 2:0.21633579 3:-0.049338469 4:-0.014191778 5:0.61471093 
-3.515288506372455 0:0.49135707 1:0.364 2:0.81525453 3:-0.60488737 4:-1 5:0.56889854 
-8 0:0.24984264 1:0.352 2:0.04912157 3:-0.024743042 4:-0.0051172038 5:1 
-0.8932676503400011 0:1 1:0.276 2:0.49440792 3:-1 4:-0.18356257 5:0.48026961 
-8 0:0.015372077 1:0.448 2:0.071567672 3:0.0032699011 4:0.0036959881 5:0.63765624 
-8 0:0.066873083 1:0.372 2:0.5640376 3:-0.076334081 4:-0.011872465 5:0.61611461 
-8 0:0.2172502 1:0.284 2:0.98074496 3:-0.41908801 4:-0.18912415 5:0.59721377 
-8 0:0.018559282 1:0.248 2:0.029346831 3:0.0032977706 4:0.0030478589 5:0.7198566 
-8 0:0.07189766 1:0.312 2:0.078146116 3:-0.010714596 4:-0.0073997037 5:0.88478535 
-0.4579677042164818 0:0.63993684 1:0.092 2:0.14062355 3:-0.1756078 4:-0.095347478 5:0.92395088 
-8 0:0.35244443 1:0.108 2:0.068061646 3:-0.038996031 4:-0.052165973 5:0.8125493 
-8 0:0.058872326 1:0.196 2:0.04926825 3:-0.0054178315 4:-0.0040146889 5:0.76436268 
-8 0:0.29223683 1:0.272 2:0.098535987 3:-0.053763033 4:-0.042745388 5:0.92010412 
-8 0:0.12278742 1:0.196 2:0.02370683 3:-0.0056375461 4:-0.0030050479 5:0.93338618 
-8 0:0.28025934 1:0.184 2:0.098013454 3:-0.053493706 4:-0.021595317 5:0.93749716 
-8 0:0.018290043 1:0.232 2:0.046565148 3:0.0037467726 4:0.0020015431 5:0.75908403 
